digraph Tree {
node [shape=box, style="rounded", color="black", fontname=helvetica] ;
edge [fontname=helvetica] ;
0 [label="Age <= 29.5\ngini = 0.365\nsamples = 24420\nvalue = [18555, 5865]\nclass = Target[<=50K]"] ;
1 [label="Age <= 25.5\ngini = 0.1\nsamples = 7314\nvalue = [6927, 387]\nclass = Target[<=50K]"] ;
0 -> 1 [labeldistance=2.5, labelangle=45, headlabel="True"] ;
2 [label="Age <= 23.5\ngini = 0.035\nsamples = 4823\nvalue = [4738, 85]\nclass = Target[<=50K]"] ;
1 -> 2 ;
3 [label="Age <= 21.5\ngini = 0.012\nsamples = 3564\nvalue = [3543, 21]\nclass = Target[<=50K]"] ;
2 -> 3 ;
4 [label="C(Race)[T.White] <= 0.5\ngini = 0.003\nsamples = 2310\nvalue = [2307, 3]\nclass = Target[<=50K]"] ;
3 -> 4 ;
5 [label="gini = 0.014\nsamples = 283\nvalue = [281, 2]\nclass = Target[<=50K]"] ;
4 -> 5 ;
6 [label="C(Relationship)[T.Own-child] <= 0.5\ngini = 0.001\nsamples = 2027\nvalue = [2026, 1]\nclass = Target[<=50K]"] ;
4 -> 6 ;
7 [label="Age <= 19.5\ngini = 0.004\nsamples = 559\nvalue = [558, 1]\nclass = Target[<=50K]"] ;
6 -> 7 ;
8 [label="gini = 0.01\nsamples = 199\nvalue = [198, 1]\nclass = Target[<=50K]"] ;
7 -> 8 ;
9 [label="gini = 0.0\nsamples = 360\nvalue = [360, 0]\nclass = Target[<=50K]"] ;
7 -> 9 ;
10 [label="gini = 0.0\nsamples = 1468\nvalue = [1468, 0]\nclass = Target[<=50K]"] ;
6 -> 10 ;
11 [label="C(Sex)[T.Male] <= 0.5\ngini = 0.028\nsamples = 1254\nvalue = [1236, 18]\nclass = Target[<=50K]"] ;
3 -> 11 ;
12 [label="C(Education)[T.Some-college] <= 0.5\ngini = 0.015\nsamples = 541\nvalue = [537, 4]\nclass = Target[<=50K]"] ;
11 -> 12 ;
13 [label="gini = 0.023\nsamples = 339\nvalue = [335, 4]\nclass = Target[<=50K]"] ;
12 -> 13 ;
14 [label="gini = 0.0\nsamples = 202\nvalue = [202, 0]\nclass = Target[<=50K]"] ;
12 -> 14 ;
15 [label="C(Education)[T.HS-grad] <= 0.5\ngini = 0.038\nsamples = 713\nvalue = [699, 14]\nclass = Target[<=50K]"] ;
11 -> 15 ;
16 [label="C(Relationship)[T.Not-in-family] <= 0.5\ngini = 0.055\nsamples = 493\nvalue = [479, 14]\nclass = Target[<=50K]"] ;
15 -> 16 ;
17 [label="Age <= 22.5\ngini = 0.065\nsamples = 325\nvalue = [314, 11]\nclass = Target[<=50K]"] ;
16 -> 17 ;
18 [label="gini = 0.063\nsamples = 154\nvalue = [149, 5]\nclass = Target[<=50K]"] ;
17 -> 18 ;
19 [label="gini = 0.068\nsamples = 171\nvalue = [165, 6]\nclass = Target[<=50K]"] ;
17 -> 19 ;
20 [label="gini = 0.035\nsamples = 168\nvalue = [165, 3]\nclass = Target[<=50K]"] ;
16 -> 20 ;
21 [label="gini = 0.0\nsamples = 220\nvalue = [220, 0]\nclass = Target[<=50K]"] ;
15 -> 21 ;
22 [label="C(Relationship)[T.Own-child] <= 0.5\ngini = 0.096\nsamples = 1259\nvalue = [1195, 64]\nclass = Target[<=50K]"] ;
2 -> 22 ;
23 [label="C(Relationship)[T.Not-in-family] <= 0.5\ngini = 0.132\nsamples = 861\nvalue = [800, 61]\nclass = Target[<=50K]"] ;
22 -> 23 ;
24 [label="C(Education)[T.HS-grad] <= 0.5\ngini = 0.199\nsamples = 429\nvalue = [381, 48]\nclass = Target[<=50K]"] ;
23 -> 24 ;
25 [label="gini = 0.235\nsamples = 265\nvalue = [229, 36]\nclass = Target[<=50K]"] ;
24 -> 25 ;
26 [label="gini = 0.136\nsamples = 164\nvalue = [152, 12]\nclass = Target[<=50K]"] ;
24 -> 26 ;
27 [label="C(Sex)[T.Male] <= 0.5\ngini = 0.058\nsamples = 432\nvalue = [419, 13]\nclass = Target[<=50K]"] ;
23 -> 27 ;
28 [label="gini = 0.025\nsamples = 160\nvalue = [158, 2]\nclass = Target[<=50K]"] ;
27 -> 28 ;
29 [label="gini = 0.078\nsamples = 272\nvalue = [261, 11]\nclass = Target[<=50K]"] ;
27 -> 29 ;
30 [label="Age <= 24.5\ngini = 0.015\nsamples = 398\nvalue = [395, 3]\nclass = Target[<=50K]"] ;
22 -> 30 ;
31 [label="gini = 0.0\nsamples = 208\nvalue = [208, 0]\nclass = Target[<=50K]"] ;
30 -> 31 ;
32 [label="gini = 0.031\nsamples = 190\nvalue = [187, 3]\nclass = Target[<=50K]"] ;
30 -> 32 ;
33 [label="C(Education)[T.Bachelors] <= 0.5\ngini = 0.213\nsamples = 2491\nvalue = [2189, 302]\nclass = Target[<=50K]"] ;
1 -> 33 ;
34 [label="C(Occupation)[T.Prof-specialty] <= 0.5\ngini = 0.165\nsamples = 1948\nvalue = [1771, 177]\nclass = Target[<=50K]"] ;
33 -> 34 ;
35 [label="C(Relationship)[T.Own-child] <= 0.5\ngini = 0.146\nsamples = 1780\nvalue = [1639, 141]\nclass = Target[<=50K]"] ;
34 -> 35 ;
36 [label="C(Relationship)[T.Not-in-family] <= 0.5\ngini = 0.171\nsamples = 1459\nvalue = [1321, 138]\nclass = Target[<=50K]"] ;
35 -> 36 ;
37 [label="C(Relationship)[T.Unmarried] <= 0.5\ngini = 0.225\nsamples = 935\nvalue = [814, 121]\nclass = Target[<=50K]"] ;
36 -> 37 ;
38 [label="C(Education)[T.HS-grad] <= 0.5\ngini = 0.266\nsamples = 753\nvalue = [634, 119]\nclass = Target[<=50K]"] ;
37 -> 38 ;
39 [label="Age <= 27.5\ngini = 0.312\nsamples = 398\nvalue = [321, 77]\nclass = Target[<=50K]"] ;
38 -> 39 ;
40 [label="gini = 0.26\nsamples = 189\nvalue = [160, 29]\nclass = Target[<=50K]"] ;
39 -> 40 ;
41 [label="gini = 0.354\nsamples = 209\nvalue = [161, 48]\nclass = Target[<=50K]"] ;
39 -> 41 ;
42 [label="Age <= 27.5\ngini = 0.209\nsamples = 355\nvalue = [313, 42]\nclass = Target[<=50K]"] ;
38 -> 42 ;
43 [label="gini = 0.214\nsamples = 156\nvalue = [137, 19]\nclass = Target[<=50K]"] ;
42 -> 43 ;
44 [label="gini = 0.204\nsamples = 199\nvalue = [176, 23]\nclass = Target[<=50K]"] ;
42 -> 44 ;
45 [label="gini = 0.022\nsamples = 182\nvalue = [180, 2]\nclass = Target[<=50K]"] ;
37 -> 45 ;
46 [label="Age <= 27.5\ngini = 0.063\nsamples = 524\nvalue = [507, 17]\nclass = Target[<=50K]"] ;
36 -> 46 ;
47 [label="gini = 0.038\nsamples = 260\nvalue = [255, 5]\nclass = Target[<=50K]"] ;
46 -> 47 ;
48 [label="gini = 0.087\nsamples = 264\nvalue = [252, 12]\nclass = Target[<=50K]"] ;
46 -> 48 ;
49 [label="C(Education)[T.HS-grad] <= 0.5\ngini = 0.019\nsamples = 321\nvalue = [318, 3]\nclass = Target[<=50K]"] ;
35 -> 49 ;
50 [label="gini = 0.023\nsamples = 169\nvalue = [167, 2]\nclass = Target[<=50K]"] ;
49 -> 50 ;
51 [label="gini = 0.013\nsamples = 152\nvalue = [151, 1]\nclass = Target[<=50K]"] ;
49 -> 51 ;
52 [label="gini = 0.337\nsamples = 168\nvalue = [132, 36]\nclass = Target[<=50K]"] ;
34 -> 52 ;
53 [label="C(Relationship)[T.Not-in-family] <= 0.5\ngini = 0.354\nsamples = 543\nvalue = [418, 125]\nclass = Target[<=50K]"] ;
33 -> 53 ;
54 [label="gini = 0.447\nsamples = 296\nvalue = [196, 100]\nclass = Target[<=50K]"] ;
53 -> 54 ;
55 [label="gini = 0.182\nsamples = 247\nvalue = [222, 25]\nclass = Target[<=50K]"] ;
53 -> 55 ;
56 [label="C(Sex)[T.Male] <= 0.5\ngini = 0.435\nsamples = 17106\nvalue = [11628, 5478]\nclass = Target[<=50K]"] ;
0 -> 56 [labeldistance=2.5, labelangle=-45, headlabel="False"] ;
57 [label="C(Relationship)[T.Wife] <= 0.5\ngini = 0.265\nsamples = 5037\nvalue = [4245, 792]\nclass = Target[<=50K]"] ;
56 -> 57 ;
58 [label="C(Education)[T.Masters] <= 0.5\ngini = 0.134\nsamples = 4107\nvalue = [3811, 296]\nclass = Target[<=50K]"] ;
57 -> 58 ;
59 [label="C(Occupation)[T.Prof-specialty] <= 0.5\ngini = 0.113\nsamples = 3826\nvalue = [3595, 231]\nclass = Target[<=50K]"] ;
58 -> 59 ;
60 [label="C(Education)[T.Bachelors] <= 0.5\ngini = 0.087\nsamples = 3371\nvalue = [3217, 154]\nclass = Target[<=50K]"] ;
59 -> 60 ;
61 [label="C(Occupation)[T.Exec-managerial] <= 0.5\ngini = 0.066\nsamples = 3003\nvalue = [2901, 102]\nclass = Target[<=50K]"] ;
60 -> 61 ;
62 [label="C(Occupation)[T.Other-service] <= 0.5\ngini = 0.051\nsamples = 2655\nvalue = [2585, 70]\nclass = Target[<=50K]"] ;
61 -> 62 ;
63 [label="Age <= 46.5\ngini = 0.062\nsamples = 2014\nvalue = [1950, 64]\nclass = Target[<=50K]"] ;
62 -> 63 ;
64 [label="C(Education)[T.HS-grad] <= 0.5\ngini = 0.043\nsamples = 1178\nvalue = [1152, 26]\nclass = Target[<=50K]"] ;
63 -> 64 ;
65 [label="C(Relationship)[T.Unmarried] <= 0.5\ngini = 0.058\nsamples = 667\nvalue = [647, 20]\nclass = Target[<=50K]"] ;
64 -> 65 ;
66 [label="C(Education)[T.Some-college] <= 0.5\ngini = 0.075\nsamples = 332\nvalue = [319, 13]\nclass = Target[<=50K]"] ;
65 -> 66 ;
67 [label="gini = 0.084\nsamples = 160\nvalue = [153, 7]\nclass = Target[<=50K]"] ;
66 -> 67 ;
68 [label="gini = 0.067\nsamples = 172\nvalue = [166, 6]\nclass = Target[<=50K]"] ;
66 -> 68 ;
69 [label="Age <= 37.5\ngini = 0.041\nsamples = 335\nvalue = [328, 7]\nclass = Target[<=50K]"] ;
65 -> 69 ;
70 [label="gini = 0.024\nsamples = 162\nvalue = [160, 2]\nclass = Target[<=50K]"] ;
69 -> 70 ;
71 [label="gini = 0.056\nsamples = 173\nvalue = [168, 5]\nclass = Target[<=50K]"] ;
69 -> 71 ;
72 [label="Age <= 36.5\ngini = 0.023\nsamples = 511\nvalue = [505, 6]\nclass = Target[<=50K]"] ;
64 -> 72 ;
73 [label="gini = 0.0\nsamples = 238\nvalue = [238, 0]\nclass = Target[<=50K]"] ;
72 -> 73 ;
74 [label="gini = 0.043\nsamples = 273\nvalue = [267, 6]\nclass = Target[<=50K]"] ;
72 -> 74 ;
75 [label="C(Education)[T.Some-college] <= 0.5\ngini = 0.087\nsamples = 836\nvalue = [798, 38]\nclass = Target[<=50K]"] ;
63 -> 75 ;
76 [label="C(Relationship)[T.Not-in-family] <= 0.5\ngini = 0.067\nsamples = 630\nvalue = [608, 22]\nclass = Target[<=50K]"] ;
75 -> 76 ;
77 [label="gini = 0.036\nsamples = 270\nvalue = [265, 5]\nclass = Target[<=50K]"] ;
76 -> 77 ;
78 [label="Age <= 57.5\ngini = 0.09\nsamples = 360\nvalue = [343, 17]\nclass = Target[<=50K]"] ;
76 -> 78 ;
79 [label="gini = 0.071\nsamples = 162\nvalue = [156, 6]\nclass = Target[<=50K]"] ;
78 -> 79 ;
80 [label="gini = 0.105\nsamples = 198\nvalue = [187, 11]\nclass = Target[<=50K]"] ;
78 -> 80 ;
81 [label="gini = 0.143\nsamples = 206\nvalue = [190, 16]\nclass = Target[<=50K]"] ;
75 -> 81 ;
82 [label="C(Relationship)[T.Not-in-family] <= 0.5\ngini = 0.019\nsamples = 641\nvalue = [635, 6]\nclass = Target[<=50K]"] ;
62 -> 82 ;
83 [label="Age <= 43.5\ngini = 0.025\nsamples = 393\nvalue = [388, 5]\nclass = Target[<=50K]"] ;
82 -> 83 ;
84 [label="gini = 0.009\nsamples = 222\nvalue = [221, 1]\nclass = Target[<=50K]"] ;
83 -> 84 ;
85 [label="gini = 0.046\nsamples = 171\nvalue = [167, 4]\nclass = Target[<=50K]"] ;
83 -> 85 ;
86 [label="gini = 0.008\nsamples = 248\nvalue = [247, 1]\nclass = Target[<=50K]"] ;
82 -> 86 ;
87 [label="C(Relationship)[T.Not-in-family] <= 0.5\ngini = 0.167\nsamples = 348\nvalue = [316, 32]\nclass = Target[<=50K]"] ;
61 -> 87 ;
88 [label="gini = 0.091\nsamples = 168\nvalue = [160, 8]\nclass = Target[<=50K]"] ;
87 -> 88 ;
89 [label="gini = 0.231\nsamples = 180\nvalue = [156, 24]\nclass = Target[<=50K]"] ;
87 -> 89 ;
90 [label="Age <= 42.5\ngini = 0.243\nsamples = 368\nvalue = [316, 52]\nclass = Target[<=50K]"] ;
60 -> 90 ;
91 [label="gini = 0.196\nsamples = 209\nvalue = [186, 23]\nclass = Target[<=50K]"] ;
90 -> 91 ;
92 [label="gini = 0.298\nsamples = 159\nvalue = [130, 29]\nclass = Target[<=50K]"] ;
90 -> 92 ;
93 [label="C(Relationship)[T.Not-in-family] <= 0.5\ngini = 0.281\nsamples = 455\nvalue = [378, 77]\nclass = Target[<=50K]"] ;
59 -> 93 ;
94 [label="gini = 0.227\nsamples = 215\nvalue = [187, 28]\nclass = Target[<=50K]"] ;
93 -> 94 ;
95 [label="gini = 0.325\nsamples = 240\nvalue = [191, 49]\nclass = Target[<=50K]"] ;
93 -> 95 ;
96 [label="gini = 0.356\nsamples = 281\nvalue = [216, 65]\nclass = Target[<=50K]"] ;
58 -> 96 ;
97 [label="C(Occupation)[T.Prof-specialty] <= 0.5\ngini = 0.498\nsamples = 930\nvalue = [434, 496]\nclass = Target[>50K]"] ;
57 -> 97 ;
98 [label="C(Education)[T.HS-grad] <= 0.5\ngini = 0.499\nsamples = 734\nvalue = [386, 348]\nclass = Target[<=50K]"] ;
97 -> 98 ;
99 [label="Age <= 42.5\ngini = 0.499\nsamples = 439\nvalue = [212, 227]\nclass = Target[>50K]"] ;
98 -> 99 ;
100 [label="gini = 0.496\nsamples = 244\nvalue = [111, 133]\nclass = Target[>50K]"] ;
99 -> 100 ;
101 [label="gini = 0.499\nsamples = 195\nvalue = [101, 94]\nclass = Target[<=50K]"] ;
99 -> 101 ;
102 [label="gini = 0.484\nsamples = 295\nvalue = [174, 121]\nclass = Target[<=50K]"] ;
98 -> 102 ;
103 [label="gini = 0.37\nsamples = 196\nvalue = [48, 148]\nclass = Target[>50K]"] ;
97 -> 103 ;
104 [label="C(Occupation)[T.Exec-managerial] <= 0.5\ngini = 0.475\nsamples = 12069\nvalue = [7383, 4686]\nclass = Target[<=50K]"] ;
56 -> 104 ;
105 [label="C(Occupation)[T.Prof-specialty] <= 0.5\ngini = 0.45\nsamples = 10144\nvalue = [6676, 3468]\nclass = Target[<=50K]"] ;
104 -> 105 ;
106 [label="C(Relationship)[T.Not-in-family] <= 0.5\ngini = 0.408\nsamples = 8499\nvalue = [6068, 2431]\nclass = Target[<=50K]"] ;
105 -> 106 ;
107 [label="C(Education)[T.Bachelors] <= 0.5\ngini = 0.44\nsamples = 6927\nvalue = [4664, 2263]\nclass = Target[<=50K]"] ;
106 -> 107 ;
108 [label="C(Relationship)[T.Own-child] <= 0.5\ngini = 0.415\nsamples = 6126\nvalue = [4327, 1799]\nclass = Target[<=50K]"] ;
107 -> 108 ;
109 [label="C(Occupation)[T.Sales] <= 0.5\ngini = 0.428\nsamples = 5764\nvalue = [3977, 1787]\nclass = Target[<=50K]"] ;
108 -> 109 ;
110 [label="C(Occupation)[T.Tech-support] <= 0.5\ngini = 0.408\nsamples = 5024\nvalue = [3590, 1434]\nclass = Target[<=50K]"] ;
109 -> 110 ;
111 [label="C(Relationship)[T.Unmarried] <= 0.5\ngini = 0.397\nsamples = 4839\nvalue = [3515, 1324]\nclass = Target[<=50K]"] ;
110 -> 111 ;
112 [label="C(Education)[T.7th-8th] <= 0.5\ngini = 0.411\nsamples = 4535\nvalue = [3226, 1309]\nclass = Target[<=50K]"] ;
111 -> 112 ;
113 [label="Age <= 35.5\ngini = 0.419\nsamples = 4320\nvalue = [3027, 1293]\nclass = Target[<=50K]"] ;
112 -> 113 ;
114 [label="gini = 0.325\nsamples = 902\nvalue = [718, 184]\nclass = Target[<=50K]"] ;
113 -> 114 ;
115 [label="gini = 0.438\nsamples = 3418\nvalue = [2309, 1109]\nclass = Target[<=50K]"] ;
113 -> 115 ;
116 [label="gini = 0.138\nsamples = 215\nvalue = [199, 16]\nclass = Target[<=50K]"] ;
112 -> 116 ;
117 [label="gini = 0.094\nsamples = 304\nvalue = [289, 15]\nclass = Target[<=50K]"] ;
111 -> 117 ;
118 [label="gini = 0.482\nsamples = 185\nvalue = [75, 110]\nclass = Target[>50K]"] ;
110 -> 118 ;
119 [label="Age <= 36.5\ngini = 0.499\nsamples = 740\nvalue = [387, 353]\nclass = Target[<=50K]"] ;
109 -> 119 ;
120 [label="gini = 0.471\nsamples = 150\nvalue = [93, 57]\nclass = Target[<=50K]"] ;
119 -> 120 ;
121 [label="Age <= 53.5\ngini = 0.5\nsamples = 590\nvalue = [294, 296]\nclass = Target[>50K]"] ;
119 -> 121 ;
122 [label="C(Education)[T.HS-grad] <= 0.5\ngini = 0.494\nsamples = 386\nvalue = [172, 214]\nclass = Target[>50K]"] ;
121 -> 122 ;
123 [label="gini = 0.479\nsamples = 236\nvalue = [94, 142]\nclass = Target[>50K]"] ;
122 -> 123 ;
124 [label="gini = 0.499\nsamples = 150\nvalue = [78, 72]\nclass = Target[<=50K]"] ;
122 -> 124 ;
125 [label="gini = 0.481\nsamples = 204\nvalue = [122, 82]\nclass = Target[<=50K]"] ;
121 -> 125 ;
126 [label="C(Education)[T.HS-grad] <= 0.5\ngini = 0.064\nsamples = 362\nvalue = [350, 12]\nclass = Target[<=50K]"] ;
108 -> 126 ;
127 [label="gini = 0.084\nsamples = 181\nvalue = [173, 8]\nclass = Target[<=50K]"] ;
126 -> 127 ;
128 [label="gini = 0.043\nsamples = 181\nvalue = [177, 4]\nclass = Target[<=50K]"] ;
126 -> 128 ;
129 [label="C(Occupation)[T.Sales] <= 0.5\ngini = 0.487\nsamples = 801\nvalue = [337, 464]\nclass = Target[>50K]"] ;
107 -> 129 ;
130 [label="Age <= 49.5\ngini = 0.499\nsamples = 487\nvalue = [233, 254]\nclass = Target[>50K]"] ;
129 -> 130 ;
131 [label="Age <= 40.5\ngini = 0.495\nsamples = 330\nvalue = [148, 182]\nclass = Target[>50K]"] ;
130 -> 131 ;
132 [label="gini = 0.5\nsamples = 175\nvalue = [87, 88]\nclass = Target[>50K]"] ;
131 -> 132 ;
133 [label="gini = 0.477\nsamples = 155\nvalue = [61, 94]\nclass = Target[>50K]"] ;
131 -> 133 ;
134 [label="gini = 0.497\nsamples = 157\nvalue = [85, 72]\nclass = Target[<=50K]"] ;
130 -> 134 ;
135 [label="Age <= 41.5\ngini = 0.443\nsamples = 314\nvalue = [104, 210]\nclass = Target[>50K]"] ;
129 -> 135 ;
136 [label="gini = 0.459\nsamples = 154\nvalue = [55, 99]\nclass = Target[>50K]"] ;
135 -> 136 ;
137 [label="gini = 0.425\nsamples = 160\nvalue = [49, 111]\nclass = Target[>50K]"] ;
135 -> 137 ;
138 [label="C(Occupation)[T.Sales] <= 0.5\ngini = 0.191\nsamples = 1572\nvalue = [1404, 168]\nclass = Target[<=50K]"] ;
106 -> 138 ;
139 [label="Age <= 35.5\ngini = 0.154\nsamples = 1364\nvalue = [1249, 115]\nclass = Target[<=50K]"] ;
138 -> 139 ;
140 [label="C(Education)[T.HS-grad] <= 0.5\ngini = 0.1\nsamples = 436\nvalue = [413, 23]\nclass = Target[<=50K]"] ;
139 -> 140 ;
141 [label="gini = 0.124\nsamples = 256\nvalue = [239, 17]\nclass = Target[<=50K]"] ;
140 -> 141 ;
142 [label="gini = 0.064\nsamples = 180\nvalue = [174, 6]\nclass = Target[<=50K]"] ;
140 -> 142 ;
143 [label="C(Race)[T.White] <= 0.5\ngini = 0.179\nsamples = 928\nvalue = [836, 92]\nclass = Target[<=50K]"] ;
139 -> 143 ;
144 [label="gini = 0.07\nsamples = 165\nvalue = [159, 6]\nclass = Target[<=50K]"] ;
143 -> 144 ;
145 [label="Age <= 50.5\ngini = 0.2\nsamples = 763\nvalue = [677, 86]\nclass = Target[<=50K]"] ;
143 -> 145 ;
146 [label="C(Education)[T.HS-grad] <= 0.5\ngini = 0.183\nsamples = 520\nvalue = [467, 53]\nclass = Target[<=50K]"] ;
145 -> 146 ;
147 [label="gini = 0.213\nsamples = 297\nvalue = [261, 36]\nclass = Target[<=50K]"] ;
146 -> 147 ;
148 [label="gini = 0.141\nsamples = 223\nvalue = [206, 17]\nclass = Target[<=50K]"] ;
146 -> 148 ;
149 [label="gini = 0.235\nsamples = 243\nvalue = [210, 33]\nclass = Target[<=50K]"] ;
145 -> 149 ;
150 [label="gini = 0.38\nsamples = 208\nvalue = [155, 53]\nclass = Target[<=50K]"] ;
138 -> 150 ;
151 [label="C(Relationship)[T.Not-in-family] <= 0.5\ngini = 0.466\nsamples = 1645\nvalue = [608, 1037]\nclass = Target[>50K]"] ;
105 -> 151 ;
152 [label="C(Education)[T.Prof-school] <= 0.5\ngini = 0.419\nsamples = 1338\nvalue = [399, 939]\nclass = Target[>50K]"] ;
151 -> 152 ;
153 [label="C(Education)[T.Doctorate] <= 0.5\ngini = 0.445\nsamples = 1111\nvalue = [372, 739]\nclass = Target[>50K]"] ;
152 -> 153 ;
154 [label="C(Education)[T.Masters] <= 0.5\ngini = 0.464\nsamples = 952\nvalue = [348, 604]\nclass = Target[>50K]"] ;
153 -> 154 ;
155 [label="C(Education)[T.Bachelors] <= 0.5\ngini = 0.482\nsamples = 678\nvalue = [274, 404]\nclass = Target[>50K]"] ;
154 -> 155 ;
156 [label="gini = 0.499\nsamples = 252\nvalue = [130, 122]\nclass = Target[<=50K]"] ;
155 -> 156 ;
157 [label="Age <= 44.5\ngini = 0.448\nsamples = 426\nvalue = [144, 282]\nclass = Target[>50K]"] ;
155 -> 157 ;
158 [label="gini = 0.453\nsamples = 259\nvalue = [90, 169]\nclass = Target[>50K]"] ;
157 -> 158 ;
159 [label="gini = 0.438\nsamples = 167\nvalue = [54, 113]\nclass = Target[>50K]"] ;
157 -> 159 ;
160 [label="gini = 0.394\nsamples = 274\nvalue = [74, 200]\nclass = Target[>50K]"] ;
154 -> 160 ;
161 [label="gini = 0.256\nsamples = 159\nvalue = [24, 135]\nclass = Target[>50K]"] ;
153 -> 161 ;
162 [label="gini = 0.21\nsamples = 227\nvalue = [27, 200]\nclass = Target[>50K]"] ;
152 -> 162 ;
163 [label="Age <= 40.5\ngini = 0.435\nsamples = 307\nvalue = [209, 98]\nclass = Target[<=50K]"] ;
151 -> 163 ;
164 [label="gini = 0.422\nsamples = 152\nvalue = [106, 46]\nclass = Target[<=50K]"] ;
163 -> 164 ;
165 [label="gini = 0.446\nsamples = 155\nvalue = [103, 52]\nclass = Target[<=50K]"] ;
163 -> 165 ;
166 [label="C(Relationship)[T.Not-in-family] <= 0.5\ngini = 0.465\nsamples = 1925\nvalue = [707, 1218]\nclass = Target[>50K]"] ;
104 -> 166 ;
167 [label="C(Education)[T.HS-grad] <= 0.5\ngini = 0.43\nsamples = 1631\nvalue = [511, 1120]\nclass = Target[>50K]"] ;
166 -> 167 ;
168 [label="C(Education)[T.Some-college] <= 0.5\ngini = 0.393\nsamples = 1329\nvalue = [357, 972]\nclass = Target[>50K]"] ;
167 -> 168 ;
169 [label="C(Education)[T.Masters] <= 0.5\ngini = 0.35\nsamples = 1026\nvalue = [232, 794]\nclass = Target[>50K]"] ;
168 -> 169 ;
170 [label="C(Education)[T.Bachelors] <= 0.5\ngini = 0.387\nsamples = 767\nvalue = [201, 566]\nclass = Target[>50K]"] ;
169 -> 170 ;
171 [label="gini = 0.461\nsamples = 205\nvalue = [74, 131]\nclass = Target[>50K]"] ;
170 -> 171 ;
172 [label="Age <= 43.5\ngini = 0.35\nsamples = 562\nvalue = [127, 435]\nclass = Target[>50K]"] ;
170 -> 172 ;
173 [label="gini = 0.387\nsamples = 259\nvalue = [68, 191]\nclass = Target[>50K]"] ;
172 -> 173 ;
174 [label="gini = 0.314\nsamples = 303\nvalue = [59, 244]\nclass = Target[>50K]"] ;
172 -> 174 ;
175 [label="gini = 0.211\nsamples = 259\nvalue = [31, 228]\nclass = Target[>50K]"] ;
169 -> 175 ;
176 [label="gini = 0.485\nsamples = 303\nvalue = [125, 178]\nclass = Target[>50K]"] ;
168 -> 176 ;
177 [label="Age <= 45.5\ngini = 0.5\nsamples = 302\nvalue = [154, 148]\nclass = Target[<=50K]"] ;
167 -> 177 ;
178 [label="gini = 0.492\nsamples = 151\nvalue = [85, 66]\nclass = Target[<=50K]"] ;
177 -> 178 ;
179 [label="gini = 0.496\nsamples = 151\nvalue = [69, 82]\nclass = Target[>50K]"] ;
177 -> 179 ;
180 [label="gini = 0.444\nsamples = 294\nvalue = [196, 98]\nclass = Target[<=50K]"] ;
166 -> 180 ;
}